{
  "labels": [
    "Paper",
    "Pointing_Down",
    "Pointing_Left",
    "Pointing_Right",
    "Rock"
  ],
  "layers": [
    {
      "kernel": [
        [
          -0.26866793632507324,
          0.15225102007389069,
          0.25416380167007446,
          0.277849018573761,
          0.06598592549562454,
          0.22753794491291046,
          -0.00456999009475112,
          0.15804383158683777,
          0.07931942492723465,
          0.27142956852912903,
          -0.11733904480934143,
          -0.046909354627132416,
          -0.02473337948322296,
          -0.21692807972431183,
          -0.17554616928100586,
          -0.01866653561592102,
          -0.01569869928061962,
          0.29420870542526245,
          0.2832849323749542,
          -0.2719162702560425,
          0.3045436143875122,
          -0.27713775634765625,
          -0.07733228802680969,
          -0.2148551046848297,
          0.13340631127357483,
          0.13381893932819366,
          -0.0496785044670105,
          0.13714052736759186,
          -0.06532884389162064,
          -0.17834684252738953,
          0.07190827280282974,
          0.2059006243944168,
          -0.21239903569221497,
          0.16959963738918304,
          -0.06528759747743607,
          0.047020040452480316,
          0.023929521441459656,
          0.10953375697135925,
          0.20927393436431885,
          -0.21536287665367126,
          0.122470423579216,
          0.14831049740314484,
          0.24233637750148773,
          0.18598756194114685,
          -0.2606698274612427,
          -0.10072930157184601,
          -0.11242995411157608,
          -0.054499804973602295,
          0.06450560688972473,
          -0.11190806329250336,
          0.058698415756225586,
          0.05160726234316826,
          0.02553643472492695,
          -0.06269248574972153,
          -0.0500904843211174,
          0.09462922811508179,
          -0.1921890377998352,
          0.07474008202552795,
          0.186996191740036,
          -0.085468590259552,
          0.0412115752696991,
          -0.19615598022937775,
          0.34529075026512146,
          0.048890091478824615
        ],
        [
          -0.05856353044509888,
          0.007586617488414049,
          -0.11772728711366653,
          0.12429171055555344,
          -0.12738198041915894,
          -0.12100154161453247,
          -0.27245664596557617,
          -0.17185109853744507,
          -0.26386258006095886,
          0.16995637118816376,
          -0.21513822674751282,
          -0.13309381902217865,
          -0.18271367251873016,
          -0.07410888373851776,
          -0.09692614525556564,
          0.001609697937965393,
          0.10887105762958527,
          -0.08480490744113922,
          0.15697431564331055,
          -0.023957014083862305,
          0.2573089301586151,
          0.2517834007740021,
          0.048370469361543655,
          -0.15468233823776245,
          -0.2936607301235199,
          -0.222783163189888,
          -0.07691234350204468,
          0.17176395654678345,
          -0.10639651119709015,
          0.16528210043907166,
          0.15770231187343597,
          0.09854146093130112,
          0.11517993360757828,
          0.28784915804862976,
          0.049563225358724594,
          0.2519184648990631,
          -0.15525616705417633,
          -0.193229079246521,
          0.2510828971862793,
          -0.008269631303846836,
          -0.059255100786685944,
          0.15504151582717896,
          0.21113672852516174,
          -0.12955769896507263,
          -0.016640568152070045,
          -0.054660454392433167,
          0.07395291328430176,
          0.10283592343330383,
          0.15799102187156677,
          0.09024905413389206,
          0.20572593808174133,
          0.09846947342157364,
          -0.03819440305233002,
          0.048199642449617386,
          0.021507693454623222,
          0.09734538197517395,
          -0.05977891758084297,
          -0.059194415807724,
          -0.1047687828540802,
          -0.1431916207075119,
          0.19839665293693542,
          0.17858412861824036,
          0.3013553321361542,
          -0.04307669401168823
        ],
        [
          -0.12344104051589966,
          0.022023648023605347,
          0.18886713683605194,
          -0.1956479847431183,
          -0.18629449605941772,
          -0.07918430864810944,
          -0.14498725533485413,
          0.0931931659579277,
          0.10773299634456635,
          -0.14345373213291168,
          -0.05772523954510689,
          0.0586245134472847,
          0.11775171756744385,
          0.006834536790847778,
          0.014585033059120178,
          -0.009521976113319397,
          0.040302425622940063,
          0.10811015963554382,
          -0.14290158450603485,
          0.10423389822244644,
          -0.05966511741280556,
          0.12171155214309692,
          -0.008863568305969238,
          0.034166693687438965,
          0.1853705793619156,
          -0.03248130530118942,
          -0.10438114404678345,
          -0.032018695026636124,
          0.09883960336446762,
          0.21657153964042664,
          -0.21541984379291534,
          0.05594658479094505,
          0.20007352530956268,
          0.23733317852020264,
          0.06136426329612732,
          -0.1390315443277359,
          0.20520684123039246,
          -0.1334453821182251,
          0.14244982600212097,
          -0.003307589329779148,
          -0.01135827787220478,
          -0.21287044882774353,
          0.02285555750131607,
          -0.13405673205852509,
          0.0543888621032238,
          -0.04727267473936081,
          -0.06492156535387039,
          0.10197463631629944,
          0.16265520453453064,
          0.07855447381734848,
          0.08608227968215942,
          0.10742946714162827,
          0.015628816559910774,
          0.0893898755311966,
          0.07225213199853897,
          0.19975003600120544,
          0.17534248530864716,
          0.15352463722229004,
          0.17566810548305511,
          0.11701478064060211,
          0.04165351390838623,
          0.16790461540222168,
          0.11658089607954025,
          0.20719847083091736
        ],
        [
          -0.04916675388813019,
          -0.053868893533945084,
          -0.05283144488930702,
          -0.008490472100675106,
          0.16759194433689117,
          0.2953205406665802,
          -0.061838120222091675,
          -0.17222368717193604,
          -0.2395099699497223,
          0.06201133504509926,
          0.1722453385591507,
          -0.1190301775932312,
          0.06675481796264648,
          0.0007760822772979736,
          0.09082701802253723,
          0.19297084212303162,
          -0.08247591555118561,
          0.04304438456892967,
          0.2315460741519928,
          -0.2643449306488037,
          0.038769159466028214,
          0.07915400713682175,
          -0.007535887416452169,
          -0.16781677305698395,
          0.23663704097270966,
          -0.2504138648509979,
          -0.14498651027679443,
          -0.18919532001018524,
          0.044331636279821396,
          0.19772270321846008,
          -0.0069929612800478935,
          -0.15652954578399658,
          -0.04408413916826248,
          -0.008429336361587048,
          0.04352148622274399,
          -0.1679803431034088,
          0.11410465836524963,
          -0.010979264974594116,
          -0.01566018909215927,
          -0.08559893816709518,
          0.02702721580862999,
          0.15000347793102264,
          0.11364187300205231,
          -0.05784398317337036,
          0.12431465089321136,
          -0.2165437787771225,
          -0.28020232915878296,
          -0.1207682341337204,
          -0.16620387136936188,
          -0.030812090262770653,
          0.13024267554283142,
          0.1479008048772812,
          -0.031615640968084335,
          0.07661803066730499,
          -0.06222585588693619,
          -0.10271055996417999,
          0.06932104378938675,
          0.06017804145812988,
          0.09353210777044296,
          0.12272079288959503,
          0.10935181379318237,
          0.1627853810787201,
          0.26032754778862,
          0.1414448320865631
        ],
        [
          0.04999756067991257,
          0.138953298330307,
          -0.012415424920618534,
          -0.06700392812490463,
          0.16325779259204865,
          0.07337798923254013,
          -0.12333472073078156,
          -0.2060813009738922,
          0.07893391698598862,
          0.14937332272529602,
          -0.1610082983970642,
          0.09373563528060913,
          0.16670489311218262,
          0.15942612290382385,
          -0.0017832517623901367,
          0.1868390142917633,
          -0.05471937358379364,
          -0.11666505038738251,
          0.21698428690433502,
          0.17591255903244019,
          0.12428280711174011,
          0.14271697402000427,
          0.15580083429813385,
          0.005056113004684448,
          -0.04814057797193527,
          -0.15963928401470184,
          -0.19827285408973694,
          -0.17206673324108124,
          -0.007957598194479942,
          0.02458330988883972,
          -0.20375344157218933,
          0.24397699534893036,
          -0.08402632176876068,
          0.10359584540128708,
          0.13449880480766296,
          0.14251816272735596,
          -0.21562357246875763,
          0.15727612376213074,
          0.22780439257621765,
          -0.11764737218618393,
          -0.2887662649154663,
          0.12488213926553726,
          0.3062407374382019,
          -0.12766817212104797,
          0.010922770015895367,
          0.17003275454044342,
          -0.10753238946199417,
          0.08411729335784912,
          -0.003999561071395874,
          0.08594205230474472,
          -0.11450503021478653,
          0.08359932154417038,
          0.14641022682189941,
          -0.02253640629351139,
          -0.05710715427994728,
          -0.20684975385665894,
          0.18150560557842255,
          -0.1812058687210083,
          -0.03664088249206543,
          -0.004262484610080719,
          0.005507633090019226,
          -0.00559687614440918,
          -0.16283684968948364,
          0.1013859361410141
        ],
        [
          -0.08673909306526184,
          0.13491514325141907,
          0.004841935820877552,
          -0.1722748726606369,
          0.006565606687217951,
          0.06448175758123398,
          0.13846245408058167,
          -0.02707134746015072,
          0.18055324256420135,
          -0.12606224417686462,
          0.0355992317199707,
          -0.11164100468158722,
          0.0836552083492279,
          -0.10030664503574371,
          0.06446874141693115,
          -0.15588527917861938,
          0.04239619895815849,
          -0.2441655546426773,
          -0.14611481130123138,
          0.21512430906295776,
          0.0062425024807453156,
          0.02798241376876831,
          0.16228719055652618,
          0.11570578813552856,
          -0.0653454139828682,
          0.417064905166626,
          -0.1586717963218689,
          -0.18121813237667084,
          -0.027685973793268204,
          -0.12996450066566467,
          -0.07121077179908752,
          -0.026542892679572105,
          0.06726408749818802,
          0.12598977982997894,
          -0.04143482446670532,
          -0.07136377692222595,
          -0.03852589428424835,
          0.10963517427444458,
          0.10646500438451767,
          -0.08191876858472824,
          0.1606093794107437,
          -0.18678495287895203,
          0.10203087329864502,
          -0.15550926327705383,
          0.08933337777853012,
          -0.09721476584672928,
          -0.12849287688732147,
          -0.06205695867538452,
          0.010699883103370667,
          0.1797790825366974,
          -0.055293723940849304,
          -0.2529577612876892,
          -0.12790881097316742,
          -0.083091139793396,
          -0.04823184385895729,
          0.08820170164108276,
          0.19252854585647583,
          0.042896777391433716,
          0.20915669202804565,
          0.05077768862247467,
          0.03648918867111206,
          0.18968912959098816,
          -0.11120901256799698,
          0.03123679757118225
        ],
        [
          -0.22287219762802124,
          0.22438682615756989,
          0.10476111620664597,
          -0.01368087250739336,
          -0.12576144933700562,
          0.12768761813640594,
          0.15994541347026825,
          -0.17004144191741943,
          0.0060798474587500095,
          -0.004508492536842823,
          0.14630678296089172,
          0.04969922825694084,
          -0.09388585388660431,
          0.20805901288986206,
          -0.17624515295028687,
          -0.18597057461738586,
          -0.16590560972690582,
          0.06140116602182388,
          -0.04555421695113182,
          -0.18176805973052979,
          -0.1649765968322754,
          -0.03248331695795059,
          -0.10073286294937134,
          -0.11476979404687881,
          0.002362772123888135,
          -0.04748577997088432,
          -0.08952866494655609,
          0.015046695247292519,
          0.16326387226581573,
          0.06538423895835876,
          -0.20845982432365417,
          -0.03630620241165161,
          0.03100825473666191,
          -0.05379017814993858,
          -0.0972345620393753,
          -0.1679495871067047,
          -0.13304144144058228,
          -0.12014207243919373,
          -0.17135809361934662,
          0.08909451961517334,
          0.098076730966568,
          0.08595576137304306,
          -0.016290461644530296,
          0.1864086389541626,
          0.10708211362361908,
          0.19380587339401245,
          0.041916683316230774,
          0.037306517362594604,
          -0.016843125224113464,
          0.11226494610309601,
          0.0987304151058197,
          -0.07917700707912445,
          -0.19441412389278412,
          0.19118763506412506,
          0.1269005388021469,
          0.10079938173294067,
          -0.0713622197508812,
          0.0922076404094696,
          -0.08569646626710892,
          -0.20880506932735443,
          -0.19507211446762085,
          -0.05797608196735382,
          -0.15742462873458862,
          0.24737301468849182
        ],
        [
          -0.018317198380827904,
          0.29321181774139404,
          -0.20147204399108887,
          -0.053076066076755524,
          0.04526630416512489,
          0.01008333545178175,
          0.06459114700555801,
          0.12056726962327957,
          0.14014428853988647,
          0.09277448803186417,
          -0.017815472558140755,
          0.07861894369125366,
          0.023910552263259888,
          -0.11381886154413223,
          0.2096467912197113,
          -0.048986002802848816,
          -0.16994856297969818,
          0.05623946711421013,
          0.21962274610996246,
          0.21172770857810974,
          0.02893793024122715,
          -0.1743958443403244,
          0.11820047348737717,
          0.17689695954322815,
          0.1411314606666565,
          0.08050575852394104,
          0.07120871543884277,
          -0.21727655827999115,
          -0.03361963853240013,
          -0.18290339410305023,
          -0.18116700649261475,
          0.08584056049585342,
          -0.1501634120941162,
          0.14639945328235626,
          0.03491416946053505,
          -0.10078668594360352,
          -0.18252836167812347,
          -0.14590157568454742,
          0.03551414981484413,
          0.14294879138469696,
          0.14401359856128693,
          -0.07222898304462433,
          -0.046382881700992584,
          0.12269988656044006,
          0.018461929634213448,
          -0.07294216006994247,
          -0.13160790503025055,
          0.026460707187652588,
          0.03734087944030762,
          -0.037535782903432846,
          -0.014656752347946167,
          0.06556874513626099,
          0.09880896657705307,
          0.006095603574067354,
          -0.14102786779403687,
          0.022453829646110535,
          -0.2062547653913498,
          -0.0577542781829834,
          -0.22382381558418274,
          -0.15557852387428284,
          0.15534260869026184,
          -0.11354083567857742,
          0.1886591762304306,
          0.16592665016651154
        ],
        [
          0.12136885523796082,
          0.1151588186621666,
          -0.15191785991191864,
          -0.14335644245147705,
          0.04286954924464226,
          0.12945371866226196,
          0.0047633592039346695,
          -0.12639279663562775,
          0.1434924453496933,
          -0.14718343317508698,
          -0.25420114398002625,
          -0.17356006801128387,
          -0.008150085806846619,
          -0.07856562733650208,
          -0.18389800190925598,
          0.16913098096847534,
          -0.14903473854064941,
          0.08540203422307968,
          -0.03930499777197838,
          -0.011752841994166374,
          -0.05282360687851906,
          -0.13312509655952454,
          -0.06708117574453354,
          0.18522614240646362,
          -0.03129230812191963,
          0.29495641589164734,
          0.13531818985939026,
          -0.017700068652629852,
          -0.08953322470188141,
          -0.1927616447210312,
          -0.16232562065124512,
          0.04917061701416969,
          -0.11858062446117401,
          0.14496761560440063,
          -0.027939343824982643,
          0.031198393553495407,
          -0.01066252589225769,
          -0.155567467212677,
          0.17817454040050507,
          -0.04439425468444824,
          -0.13514193892478943,
          0.075406014919281,
          0.15736480057239532,
          0.1531619429588318,
          -0.1632722020149231,
          -0.1518443375825882,
          -0.16511212289333344,
          -0.05305905640125275,
          0.14719364047050476,
          0.01490895077586174,
          -0.06241406500339508,
          -0.23711815476417542,
          -0.1576216071844101,
          -0.0014963233843445778,
          -0.10216479003429413,
          -0.0897994339466095,
          0.16637033224105835,
          -0.13110893964767456,
          0.1514565795660019,
          0.0946546345949173,
          0.09673306345939636,
          0.163722425699234,
          -0.08458322286605835,
          0.12772245705127716
        ],
        [
          -0.07382480800151825,
          0.13030414283275604,
          -0.02391769178211689,
          0.013927499763667583,
          0.015120887197554111,
          0.0101980185136199,
          0.08548525720834732,
          0.23489348590373993,
          0.15911871194839478,
          -0.13149119913578033,
          0.2096642702817917,
          0.0335693396627903,
          -0.2123192548751831,
          -0.06186878681182861,
          -0.13211771845817566,
          -0.19421778619289398,
          0.04977748543024063,
          0.06184607744216919,
          0.1627897322177887,
          -0.11060237139463425,
          0.15431757271289825,
          0.019823234528303146,
          -0.10611516237258911,
          0.21419677138328552,
          -0.12079352140426636,
          0.16127969324588776,
          -0.15661996603012085,
          0.19367387890815735,
          0.2163415104150772,
          0.13756632804870605,
          -0.029806138947606087,
          0.09036165475845337,
          -0.10259553045034409,
          -0.06162884458899498,
          0.1243453174829483,
          -0.008059757761657238,
          -0.13288654386997223,
          -0.16307662427425385,
          0.1039922758936882,
          0.15002323687076569,
          0.1527373045682907,
          -0.0995265543460846,
          -0.1698160320520401,
          -0.2150217592716217,
          0.015006142668426037,
          6.717598444083706e-05,
          0.16423943638801575,
          -0.11152138561010361,
          -0.09268218278884888,
          0.13829399645328522,
          0.10655739903450012,
          -0.07116362452507019,
          -0.10701416432857513,
          0.14040160179138184,
          0.08966653048992157,
          -0.14080674946308136,
          -0.0863395482301712,
          -0.16031596064567566,
          0.05951833352446556,
          0.037847332656383514,
          -0.08673550188541412,
          0.1809622049331665,
          -0.14745160937309265,
          -0.004031129647046328
        ],
        [
          -0.13214421272277832,
          0.2939700186252594,
          0.05666879564523697,
          -0.14552316069602966,
          0.16721469163894653,
          -0.07676254957914352,
          0.05067665874958038,
          0.007478326093405485,
          -0.003601429285481572,
          -0.05191273242235184,
          0.26482072472572327,
          -0.04364023357629776,
          0.21345290541648865,
          -0.13881896436214447,
          -0.12510257959365845,
          -0.11739296466112137,
          -0.04312385618686676,
          0.12992596626281738,
          -0.14316582679748535,
          -0.08249974995851517,
          -0.03903084620833397,
          -0.03242909163236618,
          0.09856980293989182,
          0.06847333908081055,
          0.22580431401729584,
          0.2569216191768646,
          0.1504739224910736,
          0.08273398876190186,
          0.23457291722297668,
          -0.01736558973789215,
          -0.17888198792934418,
          -0.1154957264661789,
          -0.09275364875793457,
          0.25890812277793884,
          0.11196187138557434,
          0.05137195065617561,
          -0.20282520353794098,
          0.17678332328796387,
          0.1647728681564331,
          -0.1652464121580124,
          -0.0172183308750391,
          -0.1401672214269638,
          0.15610596537590027,
          -0.06666870415210724,
          -0.2032238245010376,
          -0.035027436912059784,
          0.056847210973501205,
          0.05105707049369812,
          -0.12049616873264313,
          0.1972036063671112,
          -0.09027914702892303,
          -0.24243971705436707,
          -0.15324419736862183,
          0.021991416811943054,
          0.04767904058098793,
          0.08899858593940735,
          -0.15671972930431366,
          -0.15057146549224854,
          0.20469045639038086,
          0.15143433213233948,
          -0.018359795212745667,
          -0.09417403489351273,
          -0.22932611405849457,
          0.3114841878414154
        ],
        [
          0.11178424209356308,
          0.18405020236968994,
          -0.15426994860172272,
          0.11739300936460495,
          0.17588700354099274,
          -0.23270286619663239,
          -0.18745698034763336,
          -0.0739530399441719,
          0.1481582075357437,
          -0.1926911622285843,
          0.18737412989139557,
          0.17027224600315094,
          0.20491912961006165,
          -0.010305836796760559,
          0.10096332430839539,
          0.02354748547077179,
          -0.057431016117334366,
          0.00615053903311491,
          -0.15168270468711853,
          -0.05386534705758095,
          -0.08222963660955429,
          -0.16820496320724487,
          0.001709513133391738,
          0.010511457920074463,
          0.007548357825726271,
          0.3930931091308594,
          0.00038720667362213135,
          -0.04704941436648369,
          0.27975329756736755,
          0.13138437271118164,
          -0.01736649125814438,
          0.0023372690193355083,
          0.04172217473387718,
          -0.08774362504482269,
          -0.07697673887014389,
          0.09779562056064606,
          0.05060446262359619,
          0.10485878586769104,
          -0.13275249302387238,
          0.17025654017925262,
          -0.19315777719020844,
          0.09363538771867752,
          0.13204750418663025,
          0.11561688780784607,
          0.1315481811761856,
          -0.19829507172107697,
          0.09110366553068161,
          -0.07759194076061249,
          -0.08019852638244629,
          0.11679083853960037,
          0.13187813758850098,
          -0.23871132731437683,
          0.18861013650894165,
          0.12174500524997711,
          -0.023941632360219955,
          -0.19870437681674957,
          0.04490991681814194,
          -0.16002768278121948,
          0.08929182589054108,
          0.20773178339004517,
          -0.04051581025123596,
          0.02007220685482025,
          -0.014310975559055805,
          0.25278347730636597
        ],
        [
          0.11988762766122818,
          0.052261438220739365,
          -0.18845850229263306,
          0.050546783953905106,
          -0.008541830815374851,
          -0.12917937338352203,
          0.2091384083032608,
          0.23535367846488953,
          0.1844010055065155,
          0.17679674923419952,
          -0.032949287444353104,
          0.24446652829647064,
          0.1584019660949707,
          0.10812348127365112,
          -0.022285565733909607,
          -0.001463964581489563,
          0.03776516765356064,
          -0.1676625907421112,
          -0.17479273676872253,
          -0.011695069260895252,
          -0.05685357004404068,
          0.16791488230228424,
          -0.01614823006093502,
          -0.12240549921989441,
          0.23843035101890564,
          -0.11106564104557037,
          -0.17890003323554993,
          0.09137683361768723,
          -0.07389120012521744,
          -0.14653950929641724,
          -0.07184778898954391,
          0.1775299459695816,
          -0.1491832435131073,
          -0.17598190903663635,
          -0.16927367448806763,
          -0.019060079008340836,
          -0.20181742310523987,
          -0.0695856511592865,
          0.10565632581710815,
          -0.08611445128917694,
          -0.11604207009077072,
          -0.1848931759595871,
          -0.20128732919692993,
          -0.10217265039682388,
          -0.03106040507555008,
          0.18620258569717407,
          0.18657736480236053,
          0.11034506559371948,
          0.16588380932807922,
          -0.1270926296710968,
          -0.18899889290332794,
          -0.17061498761177063,
          -0.08655763417482376,
          -0.15886829793453217,
          0.010719014331698418,
          -0.002251669764518738,
          0.04200280085206032,
          0.12880322337150574,
          -0.005080001894384623,
          -0.16681787371635437,
          -0.031800076365470886,
          -0.17035678029060364,
          -0.19300445914268494,
          0.18493160605430603
        ],
        [
          -0.024311769753694534,
          0.3035224974155426,
          0.20441566407680511,
          -0.23365817964076996,
          0.21054109930992126,
          0.18836332857608795,
          0.08805130422115326,
          0.16355766355991364,
          0.09210594743490219,
          -0.1513388752937317,
          0.29051345586776733,
          -0.03144153952598572,
          -0.21423059701919556,
          -0.11023609340190887,
          -0.1494513303041458,
          0.20735159516334534,
          -0.16596584022045135,
          -0.316841721534729,
          -0.037124164402484894,
          0.24175553023815155,
          -0.16560770571231842,
          0.1840330809354782,
          0.09491436183452606,
          0.19007602334022522,
          0.19649527966976166,
          0.11523253470659256,
          -0.19182619452476501,
          0.1841123402118683,
          0.07999672740697861,
          0.021394804120063782,
          0.049496859312057495,
          0.19658824801445007,
          -0.07637923210859299,
          -0.011026673950254917,
          0.1491609662771225,
          0.09729580581188202,
          -0.18066421151161194,
          0.06184747815132141,
          -0.010446280241012573,
          -0.18321190774440765,
          0.03526885062456131,
          -0.10504499822854996,
          -0.03985554724931717,
          -0.15118607878684998,
          -0.21534767746925354,
          -0.11861763894557953,
          0.098454050719738,
          -0.022136420011520386,
          -0.14130356907844543,
          0.33684584498405457,
          0.09383776783943176,
          -0.2865506112575531,
          -0.21282155811786652,
          0.15016789734363556,
          -0.04676153138279915,
          -0.16909293830394745,
          -0.18196284770965576,
          0.153854638338089,
          -0.10028670728206635,
          0.20054274797439575,
          -0.012223869562149048,
          0.0134982168674469,
          0.053251802921295166,
          0.12389905005693436
        ],
        [
          0.07898237556219101,
          -0.03853830322623253,
          -0.12168920785188675,
          0.11662311106920242,
          0.21011841297149658,
          -0.009840896353125572,
          -0.07881035655736923,
          0.11768864840269089,
          -0.19311189651489258,
          0.04213198274374008,
          -0.02403656579554081,
          -0.17439140379428864,
          0.1390594244003296,
          0.15872922539710999,
          -0.1587996482849121,
          -0.18540339171886444,
          -0.2503369152545929,
          0.007088931277394295,
          -0.08007045090198517,
          0.21284595131874084,
          0.11579133570194244,
          0.18045729398727417,
          0.19247761368751526,
          0.15525618195533752,
          -0.12340620905160904,
          0.2798282504081726,
          0.011653363704681396,
          0.17056772112846375,
          0.2775086760520935,
          0.13636234402656555,
          0.1955629140138626,
          -0.1925739049911499,
          0.042442936450242996,
          0.15858455002307892,
          -0.013447804376482964,
          -0.20990200340747833,
          0.0013832896947860718,
          -0.19547328352928162,
          0.15295884013175964,
          0.1886110156774521,
          -0.1772446185350418,
          -0.10642804205417633,
          0.13498570024967194,
          -0.05728462338447571,
          0.04994051903486252,
          -0.11731471866369247,
          -0.0829954519867897,
          -0.162126824259758,
          0.09346592426300049,
          -0.07382737845182419,
          -0.04506117105484009,
          -0.00554811954498291,
          0.05059172213077545,
          -0.1947048008441925,
          0.16570591926574707,
          0.045105934143066406,
          0.06292882561683655,
          -0.20763039588928223,
          0.02927693910896778,
          -0.15790371596813202,
          0.2148493528366089,
          -0.061145976185798645,
          -0.07869819551706314,
          -0.08476381748914719
        ],
        [
          0.1985480934381485,
          -0.12733575701713562,
          -0.15788845717906952,
          -0.15264704823493958,
          -0.06745180487632751,
          -0.014672472141683102,
          0.18617215752601624,
          -0.11645818501710892,
          -0.000554779137019068,
          -0.17388848960399628,
          -0.1342467963695526,
          -0.20377327501773834,
          -0.1649981290102005,
          -0.12605682015419006,
          0.05562451481819153,
          -0.0500042587518692,
          0.12192496657371521,
          -0.02352144382894039,
          -0.026541704311966896,
          0.16812148690223694,
          0.20972323417663574,
          -0.13401556015014648,
          0.03178756684064865,
          0.2068479359149933,
          -0.13053080439567566,
          -0.21830891072750092,
          0.05808013677597046,
          -0.09724196791648865,
          -0.00535679142922163,
          0.18469908833503723,
          -0.061365075409412384,
          0.16903115808963776,
          0.065867118537426,
          0.021092480048537254,
          0.060172151774168015,
          -0.1871267408132553,
          0.16837024688720703,
          0.0854036808013916,
          -0.03678401559591293,
          0.20095637440681458,
          -0.09922505915164948,
          0.19945861399173737,
          0.1264914721250534,
          -0.18310125172138214,
          -0.16464415192604065,
          0.08496090024709702,
          -0.05102069675922394,
          0.10402548313140869,
          -0.12815706431865692,
          -0.19117511808872223,
          0.034034550189971924,
          0.16813291609287262,
          0.16200138628482819,
          -0.12024199217557907,
          -0.18359392881393433,
          -0.09318190068006516,
          -0.08243349939584732,
          -0.12320226430892944,
          -0.12106283009052277,
          -0.03304465487599373,
          -0.13431352376937866,
          -0.07862251996994019,
          0.020031355321407318,
          -0.2073502242565155
        ],
        [
          0.10202933847904205,
          0.08479925245046616,
          -0.20702983438968658,
          -0.013285409659147263,
          0.08431821316480637,
          0.14622001349925995,
          0.03041408397257328,
          0.1624765843153,
          -0.12869501113891602,
          -0.03645278513431549,
          0.2753148674964905,
          -0.14220324158668518,
          -0.0307466983795166,
          -0.13517889380455017,
          0.10719990730285645,
          0.033147186040878296,
          0.12997949123382568,
          0.030523249879479408,
          -0.046657174825668335,
          0.187301903963089,
          0.01875889301300049,
          -0.11497180163860321,
          0.05456789582967758,
          -0.027385056018829346,
          0.07678711414337158,
          -0.15374933183193207,
          0.0587007999420166,
          0.16751012206077576,
          -0.09124360233545303,
          -0.10171070694923401,
          0.11686106026172638,
          -0.05777020379900932,
          -0.16810385882854462,
          0.29152658581733704,
          0.23429444432258606,
          0.036233432590961456,
          0.20288535952568054,
          0.19128242135047913,
          0.13172142207622528,
          0.04977540671825409,
          0.10581788420677185,
          -0.1565551608800888,
          0.15985246002674103,
          0.21631768345832825,
          -0.14028365910053253,
          -0.11341238021850586,
          -0.2169674187898636,
          0.21116626262664795,
          0.09067204594612122,
          0.3584526777267456,
          0.04424974322319031,
          -0.03488510102033615,
          -0.21782228350639343,
          0.023900773376226425,
          -0.02979155257344246,
          -0.18475918471813202,
          0.09344049543142319,
          0.20492634177207947,
          0.023861218243837357,
          0.09495973587036133,
          0.12030309438705444,
          0.02320142090320587,
          -0.1654084026813507,
          0.1944611370563507
        ],
        [
          0.22009806334972382,
          0.05187069997191429,
          -0.05335559695959091,
          0.05871887505054474,
          -0.3792561888694763,
          -0.06052714213728905,
          -0.010734748095273972,
          0.29259493947029114,
          0.38138994574546814,
          -0.12086497992277145,
          -0.09560102969408035,
          0.06949251145124435,
          -0.19504393637180328,
          0.0055118948221206665,
          -0.1659432053565979,
          -0.153213769197464,
          -0.04310588911175728,
          -0.05858161672949791,
          -0.2203446924686432,
          -0.041563890874385834,
          -0.1452905833721161,
          0.045604806393384933,
          0.15349619090557098,
          0.07873129844665527,
          -0.04425828531384468,
          0.0720103457570076,
          -0.17882096767425537,
          0.13754327595233917,
          -0.049679338932037354,
          -0.04634883999824524,
          -0.1828315407037735,
          0.0003558516618795693,
          -0.0701630562543869,
          -0.13378611207008362,
          0.27207857370376587,
          0.2714884579181671,
          0.0009526908397674561,
          0.11367428302764893,
          -0.15551701188087463,
          0.16789571940898895,
          -0.23311080038547516,
          -0.22675074636936188,
          -0.12958012521266937,
          -0.028928056359291077,
          0.37886250019073486,
          -0.015471837483346462,
          -0.03009083680808544,
          -0.16036322712898254,
          -0.0703589916229248,
          -0.052106909453868866,
          0.02336740493774414,
          -0.1820804476737976,
          0.11725211143493652,
          -0.10560040920972824,
          -0.1304226517677307,
          0.11032745242118835,
          -0.0987037643790245,
          0.023957088589668274,
          0.14469927549362183,
          0.10675308853387833,
          0.16173312067985535,
          0.03564015030860901,
          0.06986682862043381,
          0.03701529651880264
        ],
        [
          0.06600699573755264,
          0.03565048798918724,
          -0.09381365031003952,
          -0.11155864596366882,
          -0.1093997210264206,
          -0.16758255660533905,
          -0.0013394160196185112,
          -0.1814078688621521,
          0.17668461799621582,
          -0.01749569922685623,
          0.04630187526345253,
          0.05061647668480873,
          -0.013819828629493713,
          0.12734994292259216,
          -0.1231926754117012,
          -0.1512933373451233,
          -0.08933568000793457,
          -0.2854463458061218,
          -0.2260836660861969,
          0.23790962994098663,
          -0.17485597729682922,
          0.24858002364635468,
          -0.15595564246177673,
          -0.12315136939287186,
          -0.21134354174137115,
          -0.21648363769054413,
          0.039882272481918335,
          -0.1417151838541031,
          0.15411102771759033,
          -0.15193873643875122,
          0.0807095542550087,
          -0.08375217765569687,
          -0.11179379373788834,
          -0.14711904525756836,
          0.17024381458759308,
          0.25502660870552063,
          0.20534265041351318,
          0.12093722820281982,
          -0.16581830382347107,
          0.19075940549373627,
          0.019022926688194275,
          -0.21347062289714813,
          -0.07146644592285156,
          -0.0995342880487442,
          0.24654559791088104,
          0.01828460581600666,
          0.19610179960727692,
          -0.0552242249250412,
          0.05968013405799866,
          0.0002817503991536796,
          -0.20172150433063507,
          0.09247533977031708,
          0.20189279317855835,
          0.0978434756398201,
          0.18899306654930115,
          -0.10924116522073746,
          -0.09497907757759094,
          -0.11809609085321426,
          0.08656055480241776,
          -0.10353155434131622,
          -0.01277799904346466,
          -0.13700425624847412,
          -0.042323824018239975,
          -0.06986796855926514
        ],
        [
          -0.13732878863811493,
          0.18300923705101013,
          0.06462303549051285,
          0.04870801791548729,
          -0.22843757271766663,
          -0.17369695007801056,
          0.02368229441344738,
          0.020647680386900902,
          0.2545868158340454,
          -0.22266578674316406,
          0.3440057337284088,
          0.1286066770553589,
          -0.026936694979667664,
          -0.12847384810447693,
          0.032828062772750854,
          6.45667314529419e-05,
          0.005965493619441986,
          -0.24739757180213928,
          0.11676768213510513,
          0.17687851190567017,
          -0.23068329691886902,
          -0.14161153137683868,
          0.014967256225645542,
          0.0030756890773773193,
          -0.048045720905065536,
          -0.15566152334213257,
          -0.07602028548717499,
          0.10496288537979126,
          0.014593658037483692,
          0.19918259978294373,
          0.015083512291312218,
          -0.23037302494049072,
          0.11873027682304382,
          0.21087117493152618,
          0.31205397844314575,
          0.056204911321401596,
          0.022424504160881042,
          -0.13140085339546204,
          -0.08232110738754272,
          0.1620183289051056,
          0.19113385677337646,
          -0.3086141347885132,
          -0.11634311825037003,
          0.03362855315208435,
          0.20572641491889954,
          -0.13203741610050201,
          0.16536401212215424,
          0.03230923414230347,
          0.20510515570640564,
          0.2421228438615799,
          -0.17723122239112854,
          -0.011544624343514442,
          0.020019980147480965,
          0.08209146559238434,
          -0.050932496786117554,
          0.20948496460914612,
          -0.11685176938772202,
          -0.12284121662378311,
          0.0500042587518692,
          -0.12707099318504333,
          -0.0770384818315506,
          -0.10301937162876129,
          0.10077118128538132,
          0.28386157751083374
        ],
        [
          0.27510154247283936,
          0.1200157031416893,
          -0.38365256786346436,
          -0.10058687627315521,
          -0.14629046618938446,
          0.053624339401721954,
          -0.22598469257354736,
          0.06981287151575089,
          0.07612849771976471,
          -0.028707319870591164,
          -0.1424582302570343,
          0.14644595980644226,
          0.04011470079421997,
          -0.05994054675102234,
          -0.12865771353244781,
          0.1221214234828949,
          -0.2015192061662674,
          0.06535416096448898,
          -0.021679362282156944,
          0.15143273770809174,
          -0.2700161933898926,
          0.10188206285238266,
          0.08222291618585587,
          0.09874850511550903,
          0.02892487309873104,
          0.1624634861946106,
          0.1944657564163208,
          -0.11747124791145325,
          0.22907741367816925,
          -0.16506658494472504,
          -0.06702011078596115,
          -0.08962935954332352,
          0.06312769651412964,
          0.20532473921775818,
          0.12479057163000107,
          0.020295917987823486,
          -0.03794346749782562,
          0.00341247022151947,
          -0.2502937316894531,
          -0.0691833347082138,
          -0.1852830946445465,
          0.14961330592632294,
          0.056294336915016174,
          -0.18882617354393005,
          0.15499065816402435,
          0.04557047411799431,
          0.05502680316567421,
          0.20563846826553345,
          0.16930744051933289,
          0.14920341968536377,
          -0.013847604393959045,
          0.027670053765177727,
          0.17709806561470032,
          0.11607954651117325,
          0.038389865309000015,
          -0.07733915746212006,
          0.09639108926057816,
          0.11250796914100647,
          -0.0671197772026062,
          0.16803942620754242,
          -0.17169824242591858,
          -0.0998845025897026,
          0.20248469710350037,
          0.2069598138332367
        ],
        [
          0.3086433708667755,
          -0.026199309155344963,
          -0.09670556336641312,
          0.12579189240932465,
          0.11864243447780609,
          -0.1356121152639389,
          -0.09181742370128632,
          0.11680647730827332,
          0.14134950935840607,
          0.1748782843351364,
          -0.018418194726109505,
          0.18782033026218414,
          -0.11292897164821625,
          -0.06055562198162079,
          0.21107971668243408,
          -0.20375484228134155,
          -0.055679794400930405,
          0.04342694580554962,
          -0.06722002476453781,
          0.39767134189605713,
          -0.01569511368870735,
          0.3403654992580414,
          0.013489882461726665,
          -0.11240002512931824,
          -0.037766460329294205,
          0.14801929891109467,
          -0.044110074639320374,
          0.05080650746822357,
          -0.09194645285606384,
          0.12923043966293335,
          -0.10470268130302429,
          -0.07529961317777634,
          0.15350304543972015,
          -0.25422582030296326,
          -0.14269474148750305,
          -0.1157388910651207,
          -0.10077381879091263,
          -0.10564788430929184,
          0.09397060424089432,
          -0.09280066937208176,
          -0.21208986639976501,
          0.03648577257990837,
          0.17374101281166077,
          -0.1402999758720398,
          0.10844404995441437,
          0.052522845566272736,
          0.11652213335037231,
          0.14865291118621826,
          -0.19356918334960938,
          -0.0352252721786499,
          -0.19218361377716064,
          -0.09157516807317734,
          -0.21255937218666077,
          -0.19179290533065796,
          0.09258261322975159,
          -0.06684111058712006,
          0.0907164067029953,
          -0.20332911610603333,
          -0.1651735156774521,
          -0.15649563074111938,
          -0.1335248351097107,
          -0.1679089069366455,
          -0.34031808376312256,
          -0.1948419213294983
        ],
        [
          -0.0716295912861824,
          -0.23165194690227509,
          -0.06800291687250137,
          -0.051538437604904175,
          0.04086853936314583,
          0.17340977489948273,
          -0.10797963291406631,
          0.16417211294174194,
          0.0437624566257,
          0.02868804708123207,
          0.17554187774658203,
          0.1779939979314804,
          -0.08781474828720093,
          -0.0337090939283371,
          -0.10488153994083405,
          -0.05816051363945007,
          0.07352444529533386,
          -0.011753934435546398,
          -0.21130377054214478,
          -0.1649022251367569,
          -0.25160902738571167,
          0.0795506164431572,
          0.02063354104757309,
          0.18638882040977478,
          0.16108886897563934,
          -0.22134187817573547,
          0.03529748320579529,
          -0.02535276487469673,
          -0.08007105439901352,
          -0.06850987672805786,
          0.048191916197538376,
          -0.13232122361660004,
          -0.02873813919723034,
          -0.09023264795541763,
          -0.1267041563987732,
          0.12533710896968842,
          0.1982458531856537,
          -0.17551544308662415,
          -0.18286317586898804,
          -0.08959302306175232,
          0.2805955111980438,
          0.12486785650253296,
          0.10857602953910828,
          -0.07902108132839203,
          0.17627741396427155,
          0.025622675195336342,
          0.1666731834411621,
          -0.061074674129486084,
          -0.06340961158275604,
          0.19009517133235931,
          -0.1968432366847992,
          -0.15206995606422424,
          0.04553688317537308,
          -0.19544604420661926,
          0.20981934666633606,
          0.19692984223365784,
          0.012885697185993195,
          0.08210250735282898,
          0.061484698206186295,
          0.04949884116649628,
          0.1658080518245697,
          0.1379423439502716,
          -0.06858894973993301,
          0.17694400250911713
        ],
        [
          0.3745245337486267,
          0.25120818614959717,
          -0.0576409175992012,
          0.11791790276765823,
          -0.27362316846847534,
          0.18023881316184998,
          0.039259884506464005,
          -0.09076572209596634,
          0.281480610370636,
          -0.006049415096640587,
          -0.003182219574227929,
          -0.02076324075460434,
          -0.12464861571788788,
          -0.10395496338605881,
          0.18970856070518494,
          0.10419562458992004,
          -0.30929046869277954,
          -0.0654037669301033,
          -0.05595170333981514,
          0.27134469151496887,
          0.1203850507736206,
          0.13949915766716003,
          -0.12100865691900253,
          -0.0659923106431961,
          0.12339962273836136,
          -0.005122578702867031,
          -0.1959437131881714,
          0.15512758493423462,
          0.2692156434059143,
          -0.1656484454870224,
          0.11933188885450363,
          0.021618742495775223,
          0.16674351692199707,
          -0.022871963679790497,
          0.07949666678905487,
          -0.07686469703912735,
          0.19906455278396606,
          0.08948814868927002,
          0.11616503447294235,
          0.2145729660987854,
          -0.24722838401794434,
          0.16032882034778595,
          0.21662817895412445,
          0.1357937455177307,
          -0.04999192804098129,
          -0.02070915885269642,
          -0.22869260609149933,
          0.13436052203178406,
          0.06398534774780273,
          -0.019347721710801125,
          0.21227681636810303,
          -0.13343271613121033,
          -0.19827885925769806,
          -0.06621395796537399,
          -0.22682416439056396,
          0.05251076817512512,
          -0.11409098654985428,
          -0.17638298869132996,
          -0.09577207267284393,
          0.1478835642337799,
          -0.052478864789009094,
          -0.12776046991348267,
          0.1854194849729538,
          0.24210892617702484
        ],
        [
          0.3977450430393219,
          -0.15206563472747803,
          0.03641071543097496,
          0.07974555343389511,
          -0.10291807353496552,
          -0.08499757200479507,
          0.2689071297645569,
          -0.10927560925483704,
          0.12841689586639404,
          -0.036963172256946564,
          0.2694030702114105,
          0.22637811303138733,
          0.03097166121006012,
          -0.14237359166145325,
          -0.1319267451763153,
          0.1405535638332367,
          0.054726142436265945,
          -0.23319897055625916,
          -0.16613459587097168,
          0.3189615309238434,
          -0.19839531183242798,
          0.32564499974250793,
          -0.007333066780120134,
          0.121479332447052,
          -0.17280779778957367,
          -0.1588968187570572,
          -0.15111622214317322,
          -0.1909920573234558,
          0.16370588541030884,
          -0.056258752942085266,
          -0.17370663583278656,
          0.07699040323495865,
          0.05104915425181389,
          -0.12101615965366364,
          0.017767127603292465,
          0.2711826264858246,
          -0.19110597670078278,
          -0.19751764833927155,
          0.08062386512756348,
          0.08432357758283615,
          0.06856144964694977,
          -0.11291676759719849,
          -0.03710385784506798,
          -0.0957200899720192,
          0.3059854805469513,
          0.014543332159519196,
          0.2910599708557129,
          0.19843852519989014,
          -0.024066269397735596,
          0.1934649646282196,
          -0.031136557459831238,
          -0.15306323766708374,
          -0.10762650519609451,
          -0.20716111361980438,
          0.17971406877040863,
          0.18510204553604126,
          -0.06946318596601486,
          0.06869572401046753,
          -0.1155524030327797,
          0.19837141036987305,
          0.003326237201690674,
          0.00615265965461731,
          -0.02448982186615467,
          -0.05394861474633217
        ],
        [
          0.20746685564517975,
          0.05953267961740494,
          0.36482658982276917,
          0.322399765253067,
          0.012317587621510029,
          -0.12545400857925415,
          0.17135334014892578,
          0.17607605457305908,
          0.2810482084751129,
          -0.33507847785949707,
          -0.0649581030011177,
          0.17383795976638794,
          -0.174652561545372,
          0.16506704688072205,
          0.12058970332145691,
          0.08032456040382385,
          0.23153917491436005,
          -0.04929739236831665,
          -0.07103651016950607,
          -0.2872758209705353,
          0.1491456776857376,
          -0.020106211304664612,
          -0.2493644505739212,
          -0.03990010917186737,
          -0.1273871511220932,
          -0.0878213495016098,
          -0.08141505718231201,
          0.10388126224279404,
          -0.14021719992160797,
          -0.13866282999515533,
          0.10778557509183884,
          -0.267143577337265,
          0.03195272758603096,
          -0.35019227862358093,
          -0.16323506832122803,
          0.060144275426864624,
          -0.132863849401474,
          0.10931175947189331,
          -0.0151969688013196,
          -0.14833411574363708,
          -0.03230841085314751,
          0.13561062514781952,
          -0.28687503933906555,
          -0.08419603109359741,
          -0.09819412231445312,
          -0.07601755857467651,
          0.0753316804766655,
          0.05415716767311096,
          -0.0432247519493103,
          -0.016316715627908707,
          0.18982753157615662,
          0.07329852879047394,
          0.1893986612558365,
          -0.11003199964761734,
          -0.03423774987459183,
          -0.10714512318372726,
          0.12179113179445267,
          -0.004541471600532532,
          -0.0811430811882019,
          0.0208563432097435,
          -0.054143697023391724,
          -0.07636578381061554,
          -0.06082156300544739,
          -0.2391323298215866
        ],
        [
          0.01181635819375515,
          -0.017739607021212578,
          -0.144810751080513,
          0.049782104790210724,
          -0.268096387386322,
          -0.050830449908971786,
          -0.031561870127916336,
          0.16696925461292267,
          0.010168895125389099,
          -0.08205212652683258,
          -0.08038905262947083,
          -0.07254420220851898,
          -0.04197947680950165,
          0.02258448302745819,
          -0.10983002185821533,
          0.05102354288101196,
          -0.11605332791805267,
          -0.05934572592377663,
          -0.205601766705513,
          0.0391438826918602,
          0.0200648196041584,
          0.10979071259498596,
          -0.10067769140005112,
          -0.14529457688331604,
          0.11021331697702408,
          0.17393267154693604,
          -0.11654313653707504,
          -0.20899996161460876,
          0.08998618274927139,
          0.20001965761184692,
          -0.16035082936286926,
          0.2769184112548828,
          -0.2102578729391098,
          -0.016451897099614143,
          0.2749791741371155,
          0.16075226664543152,
          -0.027444705367088318,
          0.20215106010437012,
          -0.1391955316066742,
          0.14461593329906464,
          0.11252477765083313,
          -0.08042041957378387,
          -0.12143445014953613,
          -0.1651262789964676,
          0.07053957879543304,
          0.21779970824718475,
          0.10589469224214554,
          -0.15384313464164734,
          -0.21540851891040802,
          -0.11076359450817108,
          -0.14966857433319092,
          -0.29441365599632263,
          -0.06857024878263474,
          0.10037647932767868,
          0.12476635724306107,
          -0.04026980698108673,
          -0.07956771552562714,
          0.11371511220932007,
          -0.05317717790603638,
          -0.14999453723430634,
          -0.17144188284873962,
          0.1824522316455841,
          0.01878289133310318,
          0.24173451960086823
        ],
        [
          -0.10370174795389175,
          -0.07369797676801682,
          -0.026944300159811974,
          0.18209609389305115,
          0.060344092547893524,
          0.10286508500576019,
          0.06752627342939377,
          0.0835694968700409,
          -0.10620936006307602,
          0.13927233219146729,
          -0.16902877390384674,
          -0.15954245626926422,
          -0.049951598048210144,
          -0.16910506784915924,
          -0.1154647246003151,
          -0.21259836852550507,
          -0.16618691384792328,
          0.13140621781349182,
          0.19654297828674316,
          0.09338466823101044,
          -0.07811521738767624,
          0.216590017080307,
          -0.13356861472129822,
          -0.2143821269273758,
          -0.24142660200595856,
          -0.24484889209270477,
          0.024698659777641296,
          -0.21377119421958923,
          0.1536785364151001,
          -0.011504217982292175,
          0.013987633399665356,
          0.14894381165504456,
          -0.061429426074028015,
          -0.19728684425354004,
          0.0559891015291214,
          0.23489919304847717,
          0.15332072973251343,
          0.07747161388397217,
          0.06986501067876816,
          -0.05923623964190483,
          -0.0104448851197958,
          0.19310788810253143,
          -0.13424178957939148,
          -0.21028684079647064,
          0.1442088633775711,
          -0.16533906757831573,
          0.22054095566272736,
          -0.10192322731018066,
          -0.20080922544002533,
          -0.05319962278008461,
          -0.20085565745830536,
          0.21160511672496796,
          0.08825040608644485,
          0.192649707198143,
          0.1884613335132599,
          0.15544867515563965,
          0.2035580426454544,
          0.0734182596206665,
          0.20271149277687073,
          -0.04358625039458275,
          0.21338894963264465,
          -0.03174297511577606,
          0.13173113763332367,
          -0.12367909401655197
        ],
        [
          0.03731977567076683,
          0.19406633079051971,
          -0.03692843019962311,
          -0.2393859475851059,
          0.009684760123491287,
          -0.11042776703834534,
          -0.07624325901269913,
          0.14835122227668762,
          -0.15179115533828735,
          -0.07243639975786209,
          0.21555280685424805,
          0.16751520335674286,
          0.17193511128425598,
          -0.018939584493637085,
          -0.2142462432384491,
          -0.19571885466575623,
          0.11191368103027344,
          0.10031748563051224,
          -0.0011603869497776031,
          -0.05522748455405235,
          0.06423380970954895,
          -0.107694610953331,
          0.04651576653122902,
          -0.023849189281463623,
          0.25647416710853577,
          0.20728355646133423,
          -0.19760523736476898,
          0.21146532893180847,
          0.2794017195701599,
          0.08052608370780945,
          0.18709631264209747,
          0.2267233431339264,
          -0.1103229746222496,
          0.24361009895801544,
          0.19583715498447418,
          -0.04675592482089996,
          0.14010488986968994,
          -0.0900593250989914,
          -0.09234598278999329,
          -0.13756969571113586,
          -0.12450067698955536,
          -0.10307998210191727,
          -0.10206837952136993,
          0.19594413042068481,
          -0.16393476724624634,
          0.10996568202972412,
          -0.20429153740406036,
          -0.1462777554988861,
          -0.19990301132202148,
          -0.07094104588031769,
          -0.04406929016113281,
          -0.08854491263628006,
          0.15616272389888763,
          0.09017401188611984,
          0.10128405690193176,
          -0.038977786898612976,
          0.19726133346557617,
          0.14775073528289795,
          -0.17215675115585327,
          0.0779884085059166,
          -0.09812328219413757,
          -0.18909409642219543,
          0.11500705778598785,
          -0.021946925669908524
        ],
        [
          0.04453565180301666,
          -0.15794804692268372,
          -0.351750910282135,
          0.05354822054505348,
          -0.002433938905596733,
          0.15214991569519043,
          0.05903178080916405,
          0.239376038312912,
          0.30047422647476196,
          0.032106611877679825,
          0.07852678000926971,
          -0.170233815908432,
          -0.11997877806425095,
          -0.11231794208288193,
          0.08141401410102844,
          0.14863315224647522,
          0.05889959633350372,
          0.08950071781873703,
          -0.3178081810474396,
          0.013826324604451656,
          0.1760280579328537,
          -0.27832260727882385,
          -0.146368607878685,
          0.11250907182693481,
          0.06216548755764961,
          0.06501533091068268,
          -0.02757441997528076,
          0.10149642825126648,
          0.059770744293928146,
          -0.016841769218444824,
          -0.14914153516292572,
          0.1661350280046463,
          0.13698649406433105,
          0.13230277597904205,
          0.24138642847537994,
          0.07086915522813797,
          0.04665014147758484,
          -0.14100709557533264,
          -0.12457539141178131,
          -0.03444824367761612,
          -0.048736970871686935,
          0.16399647295475006,
          0.08065614849328995,
          -0.01253443956375122,
          0.26073944568634033,
          -0.08219499886035919,
          -0.2247941792011261,
          -0.035295262932777405,
          -0.13854990899562836,
          -0.061998289078474045,
          0.07397708296775818,
          0.06419654190540314,
          0.03524302318692207,
          0.21303071081638336,
          0.11002349108457565,
          0.14198967814445496,
          0.15356610715389252,
          0.17653536796569824,
          -0.020112374797463417,
          -0.1760208010673523,
          -0.11402200162410736,
          0.0074147433042526245,
          0.11202604323625565,
          0.07968074083328247
        ],
        [
          0.2622932195663452,
          0.10263127088546753,
          -0.05824873596429825,
          0.13395202159881592,
          -0.06622137129306793,
          -0.1398065686225891,
          -0.006905935239046812,
          -0.08037130534648895,
          0.013372574001550674,
          0.21625782549381256,
          -0.0739678144454956,
          -0.02519402839243412,
          -0.21502161026000977,
          -0.13720667362213135,
          0.060684025287628174,
          0.201973557472229,
          0.12337249517440796,
          -0.10506778955459595,
          -0.08602935820817947,
          0.2348855435848236,
          -0.1533137857913971,
          0.10555333644151688,
          0.19897985458374023,
          -0.12702646851539612,
          -0.24656939506530762,
          0.048611510545015335,
          0.13482314348220825,
          -0.22076603770256042,
          -0.07342574745416641,
          -0.05458199977874756,
          -0.1638176441192627,
          0.11146274209022522,
          0.20965322852134705,
          -0.12793594598770142,
          -0.07790105789899826,
          0.2476491928100586,
          0.2069152593612671,
          0.020560264587402344,
          -0.053566813468933105,
          0.030075108632445335,
          -0.07993245124816895,
          0.09516691416501999,
          0.1530424803495407,
          0.11342528462409973,
          0.010345838963985443,
          0.13726142048835754,
          0.02825907990336418,
          -0.018655702471733093,
          0.03405749797821045,
          0.172255739569664,
          -0.0959387794137001,
          0.0017281841719523072,
          0.08092135936021805,
          0.15230174362659454,
          -0.00596247473731637,
          0.11488065123558044,
          0.02732851728796959,
          0.03051215410232544,
          -0.13003984093666077,
          -0.011835610494017601,
          0.13851794600486755,
          0.21232303977012634,
          -0.0028056721203029156,
          -0.10169733315706253
        ],
        [
          0.004825887735933065,
          0.12332859635353088,
          0.1998269408941269,
          0.0880807489156723,
          -0.08056838065385818,
          -0.019766684621572495,
          0.08809470385313034,
          0.23092243075370789,
          0.11949854344129562,
          -0.14968256652355194,
          0.27652546763420105,
          -0.035180557519197464,
          0.0975867211818695,
          0.17399370670318604,
          0.20542344450950623,
          -0.06403546035289764,
          0.20399786531925201,
          0.04230310022830963,
          -0.11221823841333389,
          0.013367780484259129,
          -0.18327303230762482,
          -0.09985201060771942,
          -0.006489262450486422,
          0.20474615693092346,
          0.1612088680267334,
          -0.13523192703723907,
          -0.024022847414016724,
          -0.17102763056755066,
          0.15241645276546478,
          0.18453890085220337,
          -0.02236940711736679,
          0.1211627647280693,
          0.08457282185554504,
          -0.0749816820025444,
          0.16401486098766327,
          -0.08366493880748749,
          -0.15782161056995392,
          -0.15887701511383057,
          -0.15710996091365814,
          0.1577310562133789,
          0.05916905030608177,
          -0.14300628006458282,
          -0.09183850139379501,
          -0.16235049068927765,
          0.17453806102275848,
          -0.07048549503087997,
          -0.16606459021568298,
          -0.07158510386943817,
          0.06947973370552063,
          -0.0005929582985118032,
          0.007170870900154114,
          -0.10627031326293945,
          -0.00018962062313221395,
          0.14568349719047546,
          0.013308101333677769,
          0.03256264328956604,
          0.20310452580451965,
          -0.024275168776512146,
          0.09769231826066971,
          0.09420046955347061,
          0.07446256279945374,
          0.10891366004943848,
          -0.15826790034770966,
          0.25050902366638184
        ],
        [
          0.22792227566242218,
          0.07789117097854614,
          -0.23595547676086426,
          -0.0305958054959774,
          -0.2573684751987457,
          -0.13505756855010986,
          -0.2481752634048462,
          -0.13180500268936157,
          -0.049133338034152985,
          -0.24787068367004395,
          -0.16438142955303192,
          -0.07429029792547226,
          0.078301340341568,
          -0.20822526514530182,
          0.1320405900478363,
          -0.19517011940479279,
          -0.018093695864081383,
          0.19765214622020721,
          -0.18334704637527466,
          0.3230854272842407,
          0.1599038690328598,
          -0.20656506717205048,
          0.21658650040626526,
          -0.06112748384475708,
          0.11454044282436371,
          -0.027559427544474602,
          -0.15245908498764038,
          -0.08353142440319061,
          -0.03440229594707489,
          -0.13205568492412567,
          -0.18558643758296967,
          0.20674166083335876,
          -0.20300890505313873,
          -0.01835513301193714,
          0.2854246199131012,
          -0.06084979325532913,
          -0.05880419909954071,
          -0.06301021575927734,
          -0.1520174890756607,
          -0.15303535759449005,
          -0.14405964314937592,
          0.07231166958808899,
          0.11726360023021698,
          -0.15641982853412628,
          0.03934618458151817,
          0.18281462788581848,
          -0.012629332952201366,
          0.08557790517807007,
          0.011696219444274902,
          0.28203529119491577,
          -0.029108703136444092,
          -0.2806703746318817,
          0.1635112762451172,
          0.06399105489253998,
          0.14817656576633453,
          0.06499084830284119,
          -0.1983698308467865,
          0.03359290957450867,
          0.14583727717399597,
          -0.12294945865869522,
          -0.02566462755203247,
          -0.04560551047325134,
          0.10226872563362122,
          0.3304031491279602
        ],
        [
          0.08328178524971008,
          -0.09151364117860794,
          0.20140057802200317,
          -0.008277250453829765,
          0.12067021429538727,
          -0.06487859040498734,
          0.17737984657287598,
          -0.1373569369316101,
          0.18547114729881287,
          0.1163487657904625,
          0.10457514971494675,
          0.20609228312969208,
          0.06313484907150269,
          -0.16350208222866058,
          0.026435375213623047,
          0.0028674155473709106,
          0.201820507645607,
          -0.050212230533361435,
          0.1269935816526413,
          -0.11953654885292053,
          -0.12086372077465057,
          -0.1648598164319992,
          -0.08136196434497833,
          0.1816185712814331,
          -0.20426569879055023,
          0.04765251651406288,
          -0.19528385996818542,
          0.17600537836551666,
          -0.04825630411505699,
          -0.1792272925376892,
          0.08128383755683899,
          0.1877431422472,
          0.13279858231544495,
          -0.022087493911385536,
          0.1712673455476761,
          0.1538715809583664,
          -0.18295978009700775,
          -0.2138308435678482,
          0.17221719026565552,
          -0.060531750321388245,
          0.057153407484292984,
          8.55275138746947e-05,
          0.11529451608657837,
          -0.08821284770965576,
          0.04587388038635254,
          -0.12304716557264328,
          0.18989233672618866,
          -0.20185908675193787,
          -0.21314409375190735,
          -0.09328530728816986,
          -0.13605359196662903,
          -0.1345595270395279,
          -0.04734617471694946,
          -0.01855562999844551,
          -0.06646031141281128,
          0.09207722544670105,
          -0.04351329803466797,
          0.191491961479187,
          -0.12789423763751984,
          -0.1470838040113449,
          -0.15509432554244995,
          -0.11378844082355499,
          0.02177620679140091,
          -0.1435651034116745
        ],
        [
          0.01340568158775568,
          -0.14816419780254364,
          -0.06249885633587837,
          0.02133396826684475,
          -0.07778021693229675,
          -0.22095641493797302,
          -0.16590851545333862,
          0.17611804604530334,
          0.28091931343078613,
          -0.24201829731464386,
          0.13553780317306519,
          -0.13508908450603485,
          0.054327696561813354,
          -0.18496128916740417,
          0.1310521960258484,
          -0.20847530663013458,
          0.21280322968959808,
          0.2430468201637268,
          0.06897571682929993,
          0.0519726388156414,
          0.13927602767944336,
          -0.1089399978518486,
          -0.049700114876031876,
          -0.20703880488872528,
          0.25456151366233826,
          0.13766106963157654,
          -0.1804705560207367,
          0.12930001318454742,
          0.09344755113124847,
          -0.11802628636360168,
          -0.10181750357151031,
          -0.17118027806282043,
          0.009427307173609734,
          0.024599140509963036,
          0.09091058373451233,
          0.08716823160648346,
          -0.1156337708234787,
          -0.07235859334468842,
          0.005965305492281914,
          -0.14300976693630219,
          -0.05170926824212074,
          0.10462360829114914,
          -0.2604999840259552,
          -0.07005065679550171,
          0.26562389731407166,
          -0.17349989712238312,
          0.08940528333187103,
          -0.10245481878519058,
          -0.10039940476417542,
          -0.1849602907896042,
          0.16348212957382202,
          -0.016037706285715103,
          -0.004388684872537851,
          -0.05001021921634674,
          0.11992519348859787,
          0.05898436903953552,
          0.00708377780392766,
          -0.10337305068969727,
          0.06779560446739197,
          -0.09777925163507462,
          -0.170408234000206,
          -0.06294368207454681,
          0.0348917581140995,
          -0.17647169530391693
        ],
        [
          0.19667871296405792,
          -0.14150279760360718,
          -0.038265615701675415,
          -0.19642972946166992,
          -0.27982622385025024,
          0.17359793186187744,
          -0.09562819451093674,
          -0.11876516789197922,
          -0.11688686162233353,
          -0.13293981552124023,
          0.08629731833934784,
          -0.014343854039907455,
          -0.016194626688957214,
          -0.08348259329795837,
          -0.09183147549629211,
          -0.06373743712902069,
          -0.15973328053951263,
          -0.17010517418384552,
          0.1685156226158142,
          0.09162629395723343,
          0.15712666511535645,
          -0.213892862200737,
          0.19902479648590088,
          0.050978243350982666,
          -0.19141998887062073,
          0.1443273276090622,
          -0.2089172899723053,
          0.12708140909671783,
          -0.11346477270126343,
          0.09471443295478821,
          0.15982438623905182,
          0.1566619724035263,
          0.028116539120674133,
          -0.079898402094841,
          0.06947650760412216,
          0.05029023066163063,
          0.014455318450927734,
          0.194646418094635,
          -0.2088710367679596,
          -0.11019323021173477,
          -0.12595556676387787,
          -0.1456305831670761,
          0.20884156227111816,
          0.06353524327278137,
          0.27622491121292114,
          -0.08180999010801315,
          -0.2962859570980072,
          -0.016854003071784973,
          0.16910061240196228,
          -0.0427684411406517,
          -0.19471563398838043,
          -0.12803302705287933,
          -0.15230008959770203,
          -0.12471853196620941,
          -0.10133576393127441,
          -0.07455439865589142,
          0.18660405278205872,
          0.186626136302948,
          -0.0716032087802887,
          0.038617901504039764,
          -0.20514854788780212,
          0.1899254322052002,
          -0.14820614457130432,
          0.0944514200091362
        ],
        [
          -0.06507132202386856,
          -0.15023663640022278,
          0.10009506344795227,
          -0.09489970654249191,
          -0.07820537686347961,
          0.14491209387779236,
          0.17178070545196533,
          0.07369385659694672,
          -0.01551708672195673,
          -0.09952820092439651,
          0.04460592567920685,
          0.12012416869401932,
          0.15435323119163513,
          -0.039111584424972534,
          -0.1902821660041809,
          0.18946051597595215,
          0.11165751516819,
          -0.13455934822559357,
          0.10309149324893951,
          0.14359433948993683,
          0.22056855261325836,
          0.16618357598781586,
          -0.009436879307031631,
          0.2047290802001953,
          0.07055292278528214,
          -0.11201192438602448,
          0.018791168928146362,
          0.015005170367658138,
          0.11698946356773376,
          -0.1892656832933426,
          -0.13456600904464722,
          -0.08021223545074463,
          -0.10977622866630554,
          0.19113001227378845,
          -0.06471502780914307,
          -0.20388244092464447,
          -0.18848083913326263,
          0.0776645839214325,
          -0.10728155076503754,
          -0.20941698551177979,
          0.013026313856244087,
          -0.0008105788147076964,
          -0.00013152719475328922,
          -0.08901193737983704,
          0.18644291162490845,
          0.036517299711704254,
          0.12998200953006744,
          0.14247646927833557,
          0.015578046441078186,
          0.2021564543247223,
          -0.04067589342594147,
          0.1307448446750641,
          -0.16166622936725616,
          -0.13443715870380402,
          -0.11104729771614075,
          -0.1121787428855896,
          -0.1161121129989624,
          0.1717454493045807,
          0.04507621377706528,
          -0.20354314148426056,
          -0.20238342881202698,
          -0.16523681581020355,
          0.1428666114807129,
          0.06166287511587143
        ],
        [
          0.2903595268726349,
          -0.27383676171302795,
          0.1552647054195404,
          0.08064749091863632,
          -0.3107806146144867,
          -0.16919158399105072,
          0.08098965138196945,
          -0.027724625542759895,
          0.15561427175998688,
          -0.26381680369377136,
          0.22198058664798737,
          0.07867086678743362,
          0.047841012477874756,
          0.17140716314315796,
          -0.1054193452000618,
          0.21356692910194397,
          0.24626626074314117,
          0.1651858687400818,
          -0.14934475719928741,
          0.06566892564296722,
          -0.1250014454126358,
          0.06541824340820312,
          -0.23670966923236847,
          0.20044094324111938,
          0.04839181900024414,
          0.03293183073401451,
          0.021870002150535583,
          -0.18595002591609955,
          -0.2251759171485901,
          0.023759856820106506,
          0.1226864606142044,
          0.09174013882875443,
          0.14618583023548126,
          -0.3817964792251587,
          -0.21700826287269592,
          -0.182208850979805,
          -0.21048122644424438,
          -0.07843129336833954,
          0.04382902383804321,
          0.16547751426696777,
          -0.029982013627886772,
          -0.13094815611839294,
          -0.04563315585255623,
          -0.19884589314460754,
          -0.029810920357704163,
          -0.12834841012954712,
          0.002782087307423353,
          0.034953922033309937,
          0.07558989524841309,
          -0.03266405314207077,
          -0.20183944702148438,
          0.1077347919344902,
          -0.11763278394937515,
          -0.19589431583881378,
          -0.18046891689300537,
          0.05234873294830322,
          -0.14197713136672974,
          -0.00803898274898529,
          -0.1430988609790802,
          0.17495101690292358,
          0.030871644616127014,
          0.212710440158844,
          0.2232244312763214,
          0.15807192027568817
        ],
        [
          0.1534401774406433,
          0.05737454071640968,
          0.0011422786628827453,
          -0.07605717331171036,
          -0.08907914161682129,
          -0.0010022242786362767,
          -0.14326122403144836,
          0.18724407255649567,
          -0.11063937842845917,
          0.045223888009786606,
          0.0039048842154443264,
          0.14065240323543549,
          0.1369205117225647,
          -0.10540701448917389,
          -0.20694464445114136,
          0.05525541305541992,
          -0.09781500697135925,
          -0.04951171576976776,
          0.07406803220510483,
          0.2155769318342209,
          -0.08697817474603653,
          -0.040438972413539886,
          -0.022254962474107742,
          0.013244137167930603,
          0.1978600025177002,
          -0.068374864757061,
          0.1644679307937622,
          0.026173962280154228,
          0.20594249665737152,
          0.15637680888175964,
          0.17898528277873993,
          0.004288762807846069,
          0.011207221075892448,
          0.06236550584435463,
          -0.11678463965654373,
          0.044970087707042694,
          0.010594531893730164,
          -0.14563992619514465,
          -0.06485163420438766,
          0.15438444912433624,
          -0.04321442171931267,
          -0.06350124627351761,
          0.05655888095498085,
          -0.08203572034835815,
          -0.01782146468758583,
          -0.07156562060117722,
          -0.16910451650619507,
          0.10223463177680969,
          -0.04356849193572998,
          0.10301349312067032,
          0.09174108505249023,
          -0.029383020475506783,
          0.13976281881332397,
          0.14024128019809723,
          0.1800866574048996,
          -0.13979721069335938,
          0.02940106950700283,
          -0.14109887182712555,
          -0.08761995285749435,
          -0.10519426316022873,
          0.07898211479187012,
          -0.029010608792304993,
          0.26557061076164246,
          0.11124499887228012
        ],
        [
          0.015505718067288399,
          -0.2000308483839035,
          0.024476727470755577,
          -0.04070791229605675,
          0.20488254725933075,
          0.05528929457068443,
          -0.18151965737342834,
          0.1511480063199997,
          0.12982212007045746,
          0.0905645489692688,
          -0.14671757817268372,
          -0.06327369064092636,
          0.1147703230381012,
          -0.07744714617729187,
          -0.0633891373872757,
          0.10967811942100525,
          0.1083870530128479,
          -0.0712832435965538,
          0.045689843595027924,
          -0.002707601757720113,
          0.06694430857896805,
          -0.005162590183317661,
          0.2590164244174957,
          -0.09354833513498306,
          0.016850288957357407,
          0.026728976517915726,
          0.13747811317443848,
          -0.04522721841931343,
          -0.1032671183347702,
          -0.2062416672706604,
          0.017032058909535408,
          -0.08766775578260422,
          -0.09642741829156876,
          0.06365837901830673,
          -0.21045492589473724,
          0.19211995601654053,
          0.12718626856803894,
          -0.04170055687427521,
          -0.12781493365764618,
          -0.05207709223031998,
          -0.1655631810426712,
          0.19991153478622437,
          -0.10038109123706818,
          0.141776442527771,
          -0.1495349109172821,
          0.04496078938245773,
          -0.06985785067081451,
          -0.08239780366420746,
          -0.1209840252995491,
          -0.07539425045251846,
          -0.20673108100891113,
          0.18994319438934326,
          -0.15554681420326233,
          -0.18186011910438538,
          -0.030835213139653206,
          -0.00434526801109314,
          -0.0354645662009716,
          -0.021558508276939392,
          0.09723442792892456,
          -0.055413179099559784,
          0.18543675541877747,
          -0.21645106375217438,
          0.13989832997322083,
          0.17439645528793335
        ],
        [
          -0.04788312315940857,
          -0.11159692704677582,
          -0.0028817648999392986,
          0.07141047716140747,
          -0.0491752028465271,
          -0.01790190488100052,
          -0.09876731038093567,
          0.0931791290640831,
          -0.2136206477880478,
          0.11544063687324524,
          -0.16736845672130585,
          -0.1460563987493515,
          -0.029769495129585266,
          -0.13228437304496765,
          -0.15800122916698456,
          -0.11296768486499786,
          -0.057313013821840286,
          0.1913352608680725,
          -0.043408676981925964,
          -0.05084003135561943,
          0.005790689028799534,
          0.03332725912332535,
          0.2656118869781494,
          0.13491439819335938,
          0.1939789056777954,
          0.18697090446949005,
          0.21310895681381226,
          0.14436092972755432,
          -0.004126147832721472,
          -0.12517108023166656,
          -0.20582792162895203,
          0.179900661110878,
          -0.1449287384748459,
          0.098336361348629,
          0.25548696517944336,
          0.1993514895439148,
          -0.06922346353530884,
          -0.17739596962928772,
          -0.04305171221494675,
          -0.1636926531791687,
          0.09171019494533539,
          0.08612244576215744,
          0.0335036963224411,
          -0.024044200778007507,
          -0.1727370321750641,
          0.11870493739843369,
          -0.03924671560525894,
          -0.12914510071277618,
          -0.11896799504756927,
          0.1786741316318512,
          -0.1734430342912674,
          0.1072787195444107,
          -0.06787217408418655,
          -0.0867123007774353,
          -0.1433541625738144,
          0.04163137078285217,
          0.009127064608037472,
          -0.12487652897834778,
          -0.07806874066591263,
          8.859282388584688e-05,
          -0.11381445080041885,
          0.20100879669189453,
          -0.03369949385523796,
          0.015836386010050774
        ],
        [
          0.08359313756227493,
          0.10408523678779602,
          0.027978399768471718,
          0.09038183838129044,
          -0.056030526757240295,
          -0.18276098370552063,
          -0.26201292872428894,
          0.09505881369113922,
          0.10735389590263367,
          -0.3168086111545563,
          -0.04162745550274849,
          -0.1587216705083847,
          0.12843400239944458,
          0.20948857069015503,
          0.12374106049537659,
          -0.06253744661808014,
          -0.08507773280143738,
          0.2764055132865906,
          -0.0074603259563446045,
          -0.017394883558154106,
          -0.19849251210689545,
          0.06604967266321182,
          0.021167896687984467,
          -0.048334553837776184,
          -0.0025837502907961607,
          -0.09825639426708221,
          0.0936087965965271,
          0.19959424436092377,
          0.06763119250535965,
          -0.07299864292144775,
          -0.06135175749659538,
          0.21809642016887665,
          0.1606261283159256,
          0.020385513082146645,
          -0.08040060847997665,
          0.18326200544834137,
          0.03466185927391052,
          0.18747630715370178,
          -0.1469883918762207,
          0.011180705390870571,
          -0.003634367836639285,
          0.056528013199567795,
          -0.06814932078123093,
          -0.006961509585380554,
          0.24500513076782227,
          0.22646865248680115,
          -0.02584715187549591,
          0.14813902974128723,
          0.12844857573509216,
          0.2208224982023239,
          -0.04067277908325195,
          0.09348993003368378,
          0.15499575436115265,
          0.20203502476215363,
          -0.10833428800106049,
          -0.15130308270454407,
          -0.1629749834537506,
          -0.08556780219078064,
          -0.04342769831418991,
          -0.04290732741355896,
          0.09172996878623962,
          0.12523958086967468,
          0.0916995033621788,
          0.17103147506713867
        ],
        [
          0.10176081955432892,
          0.18093083798885345,
          -0.11549222469329834,
          -0.16358301043510437,
          -0.15750184655189514,
          -0.054038651287555695,
          0.08885844051837921,
          -0.13379822671413422,
          -0.21635638177394867,
          0.19812415540218353,
          -0.1539265662431717,
          -0.02021481841802597,
          -0.16186615824699402,
          -0.12617549300193787,
          0.16564860939979553,
          -0.10370932519435883,
          0.12957024574279785,
          0.03562600538134575,
          -0.12071070820093155,
          -0.03815313056111336,
          -0.0028665405698120594,
          0.010070149786770344,
          0.06129952147603035,
          -0.15410524606704712,
          -0.25803881883621216,
          0.19186046719551086,
          -0.2043103724718094,
          0.1159767210483551,
          0.178969606757164,
          -0.21139821410179138,
          -0.06765088438987732,
          -0.14329154789447784,
          -0.132383793592453,
          0.006484625861048698,
          0.06621362268924713,
          0.09891745448112488,
          -0.14256542921066284,
          0.14167124032974243,
          0.0728866383433342,
          0.18007352948188782,
          0.038606975227594376,
          0.16457468271255493,
          -0.0846012532711029,
          0.09385031461715698,
          0.01452790480107069,
          0.06863895058631897,
          0.04949384555220604,
          -0.05033716559410095,
          0.07127654552459717,
          -0.1344071477651596,
          -0.14260146021842957,
          0.05003507062792778,
          -0.14686468243598938,
          0.08965089172124863,
          0.1106584295630455,
          -0.19601693749427795,
          0.06977379322052002,
          0.05956187844276428,
          -0.1293465495109558,
          0.0017230809899047017,
          -0.158045694231987,
          0.14093339443206787,
          -0.08304284512996674,
          -0.004996587056666613
        ],
        [
          -0.18402206897735596,
          0.17913496494293213,
          0.09976524859666824,
          0.07643666118383408,
          0.0884527638554573,
          0.17707683145999908,
          0.06310322880744934,
          0.17478911578655243,
          0.1686660349369049,
          -0.0967722162604332,
          0.043397754430770874,
          0.24369816482067108,
          -0.003629356622695923,
          -0.01816841959953308,
          0.13195571303367615,
          -0.032839998602867126,
          -0.03215464577078819,
          -0.11665212363004684,
          -0.15160860121250153,
          -0.013776266947388649,
          -0.053418610244989395,
          -0.060621876269578934,
          -0.12394291162490845,
          -0.12778379023075104,
          0.21555763483047485,
          -0.1291358917951584,
          -0.2103511542081833,
          0.04810425266623497,
          0.17317773401737213,
          0.17645874619483948,
          -0.04374968260526657,
          -0.10373514145612717,
          0.09541913121938705,
          0.10832593590021133,
          -0.005160002503544092,
          -0.02576289512217045,
          -0.07321184873580933,
          0.09704485535621643,
          -0.0756729319691658,
          -0.015428234823048115,
          0.18966302275657654,
          -0.05604492127895355,
          0.037877533584833145,
          0.1286962628364563,
          -0.05945251137018204,
          -0.2072248011827469,
          0.03908264636993408,
          -0.09238255023956299,
          -0.07690799236297607,
          0.1321697235107422,
          0.2009265422821045,
          0.1106782928109169,
          -0.16825473308563232,
          0.09813250601291656,
          -0.034116197377443314,
          0.0029020756483078003,
          0.041284020990133286,
          0.012015700340270996,
          0.1989993304014206,
          0.11056101322174072,
          0.14848530292510986,
          -0.17133896052837372,
          -0.19052082300186157,
          -0.09338165074586868
        ],
        [
          0.3080603778362274,
          -0.12245538085699081,
          -0.3375808596611023,
          -0.104934923350811,
          0.04156016185879707,
          0.05090278759598732,
          -0.2759345471858978,
          0.23679184913635254,
          -0.004072211682796478,
          -0.10776835680007935,
          0.0008337622275575995,
          0.03079056739807129,
          0.07290410995483398,
          0.1395321488380432,
          0.01921786367893219,
          0.09883961081504822,
          -0.18340128660202026,
          0.09473375976085663,
          0.07679478824138641,
          -0.029886914417147636,
          0.04209211468696594,
          -0.24896515905857086,
          0.21562670171260834,
          -0.15691888332366943,
          0.07682585716247559,
          -0.11370129883289337,
          0.04713115096092224,
          0.040167178958654404,
          0.23538120090961456,
          0.14049360156059265,
          -0.17292258143424988,
          -0.09361546486616135,
          -0.16644051671028137,
          0.07258550822734833,
          -0.026959577575325966,
          -0.15627555549144745,
          -0.09368493407964706,
          -0.20019331574440002,
          -0.23183505237102509,
          0.05181868001818657,
          -0.1005239188671112,
          0.07744979858398438,
          0.013196323998272419,
          -0.009728744626045227,
          0.11768770962953568,
          -0.11227154731750488,
          -0.006949405185878277,
          -0.0537848174571991,
          0.10699576139450073,
          0.24179087579250336,
          0.024665027856826782,
          -0.02950250916182995,
          -0.08773764222860336,
          0.028234358876943588,
          0.17582470178604126,
          0.10386765003204346,
          0.16136901080608368,
          -0.038362860679626465,
          -0.17827700078487396,
          -0.2071933001279831,
          -0.12460124492645264,
          -0.03797021508216858,
          0.05747269093990326,
          0.0294638779014349
        ],
        [
          0.042524538934230804,
          0.21101494133472443,
          0.17477062344551086,
          0.07915882021188736,
          0.20440393686294556,
          -0.07005485147237778,
          0.0011016129283234477,
          -0.061094559729099274,
          0.12942253053188324,
          -0.11882622539997101,
          -0.05750970169901848,
          -0.13630615174770355,
          -0.16220736503601074,
          0.006742343306541443,
          0.10972729325294495,
          0.1490793526172638,
          -0.10998990386724472,
          0.14307691156864166,
          -0.1460033506155014,
          0.02336375042796135,
          -0.04564551264047623,
          -0.023653477430343628,
          0.26593393087387085,
          -0.08953109383583069,
          -0.1731170266866684,
          0.08907207101583481,
          -0.07697956264019012,
          -0.1004648208618164,
          0.0043125515803694725,
          0.028105273842811584,
          0.11980229616165161,
          -0.10811740905046463,
          -0.004043705761432648,
          0.20555464923381805,
          0.020301982760429382,
          0.16863854229450226,
          0.1973564326763153,
          -0.07643277943134308,
          -0.04969988390803337,
          -0.07641882449388504,
          0.07191324979066849,
          0.14885413646697998,
          0.11179645359516144,
          -0.05207940936088562,
          0.17620743811130524,
          -0.09945842623710632,
          0.0787033960223198,
          -0.007995977997779846,
          0.1800815761089325,
          0.157748281955719,
          0.21008571982383728,
          -0.13945266604423523,
          -0.04779314994812012,
          -0.1850985586643219,
          0.01521813590079546,
          0.13007307052612305,
          -0.14610332250595093,
          0.12181556224822998,
          -0.21290087699890137,
          -0.1789400428533554,
          -0.09657209366559982,
          0.165580153465271,
          0.26091137528419495,
          -0.1548740714788437
        ],
        [
          -0.07882758975028992,
          0.09595709294080734,
          0.23753055930137634,
          0.24835315346717834,
          -0.10665913671255112,
          -0.1456746906042099,
          0.02599283866584301,
          -0.08854443579912186,
          0.29791057109832764,
          -0.24691686034202576,
          -0.17709258198738098,
          0.20029914379119873,
          -0.05453391373157501,
          -0.20895496010780334,
          0.03304791450500488,
          -0.07364325225353241,
          0.048474427312612534,
          0.2396833449602127,
          -0.13365209102630615,
          0.10604991018772125,
          -0.06800089031457901,
          0.036026615649461746,
          0.006567921955138445,
          -0.030849874019622803,
          -0.03837364539504051,
          0.13313381373882294,
          -0.06786485016345978,
          -0.1154121607542038,
          -0.14799638092517853,
          0.014231503009796143,
          0.17761285603046417,
          0.03286489099264145,
          0.16719850897789001,
          -0.297358900308609,
          -0.14695167541503906,
          -0.10764878243207932,
          0.028514936566352844,
          -0.008263319730758667,
          0.11977739632129669,
          -0.03487668186426163,
          0.2658410370349884,
          -0.12470924109220505,
          0.05338865518569946,
          -0.050075456500053406,
          0.23245760798454285,
          -0.14477862417697906,
          0.2351517379283905,
          -0.16121000051498413,
          0.19088214635849,
          0.026553437113761902,
          0.18835118412971497,
          0.187045156955719,
          0.07844068109989166,
          -0.14762628078460693,
          0.0262429341673851,
          -0.21414721012115479,
          -0.03945629671216011,
          -0.16906028985977173,
          -0.17985320091247559,
          -0.15504556894302368,
          0.09790149331092834,
          0.07992154359817505,
          0.12039528787136078,
          -0.03850438818335533
        ],
        [
          0.131565123796463,
          0.06363274902105331,
          -0.26453524827957153,
          -0.08464967459440231,
          -0.24282030761241913,
          0.20631632208824158,
          -0.2517125904560089,
          0.05875319615006447,
          -0.06512916833162308,
          -0.27225369215011597,
          -0.2145824134349823,
          -0.018028009682893753,
          0.17268243432044983,
          0.12057068943977356,
          -0.0072418153285980225,
          -0.06174607574939728,
          -0.25447216629981995,
          0.20847445726394653,
          0.12411302328109741,
          -0.14874862134456635,
          0.1356564164161682,
          -0.1071639209985733,
          0.16490301489830017,
          -0.18860091269016266,
          -0.09510021656751633,
          0.09335301071405411,
          0.09575247764587402,
          0.15919697284698486,
          -0.0781838446855545,
          0.0005212724208831787,
          -0.07952594012022018,
          -0.16958311200141907,
          0.059313226491212845,
          -0.28326845169067383,
          0.10653387755155563,
          0.20118623971939087,
          -0.03280206024646759,
          0.21252912282943726,
          0.11683008074760437,
          -0.14419983327388763,
          0.10145825147628784,
          0.039297379553318024,
          0.058671753853559494,
          -0.09636807441711426,
          0.17561079561710358,
          -0.07873567193746567,
          -0.10013562440872192,
          0.1319867968559265,
          0.08360639214515686,
          -0.08417925983667374,
          -0.06975075602531433,
          -0.0845026820898056,
          0.06841591000556946,
          0.09180241078138351,
          -0.01339553389698267,
          -0.12573474645614624,
          -0.07409538328647614,
          0.18992158770561218,
          -0.05212124437093735,
          0.0961492583155632,
          0.07123017311096191,
          0.06388014554977417,
          0.1627364456653595,
          -0.17267370223999023
        ],
        [
          0.10997183620929718,
          -0.02759975753724575,
          0.0656612366437912,
          0.03833882138133049,
          0.20897169411182404,
          0.1906285285949707,
          0.0108617739751935,
          -0.1833411306142807,
          0.08943014591932297,
          0.07929795235395432,
          -0.19110117852687836,
          -0.047390811145305634,
          -0.07700137794017792,
          0.19948583841323853,
          -0.12036262452602386,
          -0.12089908868074417,
          -0.07737094908952713,
          0.14739620685577393,
          0.1303253024816513,
          0.024433953687548637,
          0.27106207609176636,
          0.023494035005569458,
          0.0038640866987407207,
          0.009511664509773254,
          0.14335526525974274,
          0.03283214196562767,
          0.16540679335594177,
          0.043643590062856674,
          0.1339428871870041,
          -0.08560408651828766,
          0.026263754814863205,
          0.2558075189590454,
          -0.08328458666801453,
          -0.034682974219322205,
          -0.16435405611991882,
          0.15451787412166595,
          -0.046225860714912415,
          0.18268826603889465,
          0.0390537865459919,
          -0.0036775870248675346,
          -0.0674048513174057,
          0.23215430974960327,
          -0.05223340168595314,
          -0.18190239369869232,
          0.16081584990024567,
          -0.05605524033308029,
          -0.10454878956079483,
          0.014410808682441711,
          0.09166720509529114,
          -0.1852584034204483,
          0.09901353716850281,
          0.06541701406240463,
          -0.21886371076107025,
          -0.015013818629086018,
          -0.20585742592811584,
          -0.19605813920497894,
          -0.060583021491765976,
          -0.04162546992301941,
          -0.1608760505914688,
          -0.13765159249305725,
          -0.13762405514717102,
          0.1035904586315155,
          -0.04936598241329193,
          -0.20381668210029602
        ],
        [
          0.06936312466859818,
          -0.21356990933418274,
          0.15263795852661133,
          0.056705787777900696,
          0.09708939492702484,
          -0.2108740210533142,
          0.10942690819501877,
